digraph Tree {
node [shape=box, style="filled, rounded", color="black", fontname=helvetica] ;
edge [fontname=helvetica] ;
0 [label="Work-Flow-ID <= 3.5\nmse = 0.011\nsamples = 10562\nvalue = 0.06", fillcolor="#e5813938"] ;
1 [label="Work-Flow-ID <= 0.5\nmse = 0.009\nsamples = 8406\nvalue = 0.042", fillcolor="#e5813926"] ;
0 -> 1 [labeldistance=2.5, labelangle=45, headlabel="True"] ;
2 [label="Backup Start Time - Hour of Day <= 11.0\nmse = 0.003\nsamples = 2082\nvalue = 0.101", fillcolor="#e581395f"] ;
1 -> 2 ;
3 [label="Backup Start Time - Hour of Day <= 7.0\nmse = 0.001\nsamples = 1066\nvalue = 0.065", fillcolor="#e581393c"] ;
2 -> 3 ;
4 [label="mse = 0.001\nsamples = 713\nvalue = 0.058", fillcolor="#e5813936"] ;
3 -> 4 ;
5 [label="mse = 0.001\nsamples = 353\nvalue = 0.078", fillcolor="#e5813949"] ;
3 -> 5 ;
6 [label="Day of Week <= 3.5\nmse = 0.003\nsamples = 1016\nvalue = 0.139", fillcolor="#e5813985"] ;
2 -> 6 ;
7 [label="mse = 0.002\nsamples = 589\nvalue = 0.115", fillcolor="#e581396d"] ;
6 -> 7 ;
8 [label="mse = 0.003\nsamples = 427\nvalue = 0.175", fillcolor="#e58139a8"] ;
6 -> 8 ;
9 [label="Day of Week <= 1.5\nmse = 0.01\nsamples = 6324\nvalue = 0.023", fillcolor="#e5813914"] ;
1 -> 9 ;
10 [label="Work-Flow-ID <= 1.5\nmse = 0.032\nsamples = 1770\nvalue = 0.062", fillcolor="#e5813939"] ;
9 -> 10 ;
11 [label="mse = 0.085\nsamples = 567\nvalue = 0.159", fillcolor="#e5813998"] ;
10 -> 11 ;
12 [label="mse = 0.001\nsamples = 1203\nvalue = 0.018", fillcolor="#e581390e"] ;
10 -> 12 ;
13 [label="Day of Week <= 3.5\nmse = 0.001\nsamples = 4554\nvalue = 0.008", fillcolor="#e5813905"] ;
9 -> 13 ;
14 [label="mse = 0.0\nsamples = 1770\nvalue = 0.003", fillcolor="#e5813900"] ;
13 -> 14 ;
15 [label="mse = 0.001\nsamples = 2784\nvalue = 0.011", fillcolor="#e5813908"] ;
13 -> 15 ;
16 [label="Backup Start Time - Hour of Day <= 7.0\nmse = 0.011\nsamples = 2156\nvalue = 0.133", fillcolor="#e581397f"] ;
0 -> 16 [labeldistance=2.5, labelangle=-45, headlabel="False"] ;
17 [label="Day of Week <= 3.5\nmse = 0.003\nsamples = 726\nvalue = 0.104", fillcolor="#e5813962"] ;
16 -> 17 ;
18 [label="Day of Week <= 1.5\nmse = 0.003\nsamples = 397\nvalue = 0.13", fillcolor="#e581397c"] ;
17 -> 18 ;
19 [label="mse = 0.002\nsamples = 206\nvalue = 0.094", fillcolor="#e5813959"] ;
18 -> 19 ;
20 [label="mse = 0.002\nsamples = 191\nvalue = 0.165", fillcolor="#e581399e"] ;
18 -> 20 ;
21 [label="Day of Week <= 4.5\nmse = 0.0\nsamples = 329\nvalue = 0.072", fillcolor="#e5813944"] ;
17 -> 21 ;
22 [label="mse = 0.0\nsamples = 114\nvalue = 0.071", fillcolor="#e5813942"] ;
21 -> 22 ;
23 [label="mse = 0.0\nsamples = 215\nvalue = 0.073", fillcolor="#e5813944"] ;
21 -> 23 ;
24 [label="Backup Start Time - Hour of Day <= 15.0\nmse = 0.014\nsamples = 1430\nvalue = 0.149", fillcolor="#e581398e"] ;
16 -> 24 ;
25 [label="Day of Week <= 3.5\nmse = 0.022\nsamples = 709\nvalue = 0.196", fillcolor="#e58139bc"] ;
24 -> 25 ;
26 [label="mse = 0.028\nsamples = 390\nvalue = 0.264", fillcolor="#e58139ff"] ;
25 -> 26 ;
27 [label="mse = 0.0\nsamples = 319\nvalue = 0.107", fillcolor="#e5813966"] ;
25 -> 27 ;
28 [label="Day of Week <= 3.5\nmse = 0.003\nsamples = 721\nvalue = 0.104", fillcolor="#e5813962"] ;
24 -> 28 ;
29 [label="mse = 0.003\nsamples = 407\nvalue = 0.127", fillcolor="#e5813979"] ;
28 -> 29 ;
30 [label="mse = 0.0\nsamples = 314\nvalue = 0.072", fillcolor="#e5813943"] ;
28 -> 30 ;
}